SVM-light Version V6.20
0 # kernel type
3 # kernel parameter -d 
1 # kernel parameter -g 
1 # kernel parameter -s 
1 # kernel parameter -r 
empty# kernel parameter -u 
89 # highest feature index 
71 # number of training documents 
2 # number of support vectors plus 1 
0 # threshold b, each following line is a SV (starting with alpha*y)
1 1:-0.28184697 2:0.83138198 3:-0.59510612 4:0.21320246 5:0.18508071 6:-0.21148278 7:0.0013267538 8:-0.035893731 9:0.026722349 10:-0.020918865 11:0.010014662 12:0.014847185 13:-0.87636137 14:-0.90212917 15:0.77014065 16:-0.37071601 17:0.34373233 18:-0.41109833 19:-0.048767567 20:1.3238267 21:2.2410917 22:-0.24206708 23:0.02013953 24:0.73734683 25:1.6691719 26:0.30744109 27:0.78544742 28:1.6899724 29:0.6782133 30:0.49078313 31:1.0609665 32:0.12432002 33:0.086699083 34:0.13708231 35:0.23452823 36:0.15222146 37:0.094600193 38:0.94742364 39:0.23981702 40:0.40818462 41:0.89511591 42:0.52700192 43:0.29940999 44:-0.0004429367 45:0.017940102 46:-0.18500444 47:-0.35886681 48:0.033977915 49:-8.2948514e-05 50:0.0036846311 51:-0.059350621 52:0.11832533 53:-0.00056646689 54:-0.00025704034 55:0.011769638 56:-0.18112379 57:1.3497984 58:0.0013649752 59:-0.00071159005 60:0.029868551 61:-0.36773318 62:1.7749116 63:0.073517039 64:-0.00020327648 65:0.0090799471 66:-0.14142068 67:1.3326817 68:0.010101244 69:-0.00021375933 70:0.0098734815 71:-0.12409297 72:0.18012808 73:0.014729922 74:-0.021715803 75:-0.03733433 76:0.15914226 77:0.11423916 78:-0.11867984 79:-0.05300222 80:0.11168287 81:0.087907508 82:-0.11373618 83:0.10173921 84:0.20073469 85:0.065281473 86:0.11847237 87:0.10846565 88:-0.025507743 #
